solver_type L2R_LR
nr_class 5
label 2 4 0 3 1
nr_feature 225
bias -1
w
0.0002117762191448762 -0.2884703586565823 -0.4703687835238382 0.3948534267837266 0.150751637485072 
-0.3963948605140638 0.4613220672361424 -0.3451051734678429 -0.4571658276115713 0.2790253241293201 
0.4424242920551512 -0.8666920117189059 0.4472331241874848 0.2620520319403809 -0.1685007240829188 
0.01794916746313449 -0.1746631499939955 0.04870562870713512 -0.1705430643581316 0.6900382087453929 
0.5665572476077858 -0.1591102620938892 -0.1474097277604598 0.2074176299731897 -0.4126515343250574 
-0.8290823855697277 0.235551939431446 0.337097295011962 0.3684701013120474 0.3416158423537742 
-0.1891520178518364 0.8656481286198525 0.06803419869881126 -0.8937251592300399 0.4664930436829849 
0.1463973869471507 -0.5758217190159463 0.004239915937145955 0.1452927245834352 0.3360158512053287 
0.3618077891582235 -0.2524694156765337 -0.6833943324996978 0.2056332134000239 -0.4882614376659896 
-0.229923020982327 0.02155966488228876 -0.6023993949767652 0.5013484440867546 -0.1700250859893751 
-0.3685076987319671 0.4098973089200541 -0.06515852176008109 0.0001628397582795094 -0.02269729735724346 
0.3378744742103891 0.007688592867768169 -0.4753186807575324 -0.6576398690205287 0.206579892235292 
-0.2326011880367141 0.3004796694951508 0.2390529569628147 -0.3335416505117412 0.191995071674387 
0.5550772252637777 -0.6734273041174645 -0.3666547563938242 -0.3994567585157308 0.2740592923267262 
0.3837187142063778 -0.2324477023418798 -0.3254915574716712 -0.1933588549390073 -0.0264428559255114 
-0.2610246243114378 0.418204544588106 -0.3868944660838981 0.1077074569035696 0.004334397272272017 
0.5024089125740586 -0.1663456927052181 -0.1412059665417275 -0.2408648162996566 0.07393593859083647 
-0.04414709695745855 -0.1872900292920899 0.1634151923302834 0.0597623940298401 -0.1149403471479405 
0.1090944817022736 0.1699442047977401 0.2545572442383655 -0.1643788738232219 -0.5315297392719116 
-0.09615067718217411 0.1137651650211798 0.363748795402701 -0.2087565191135997 -0.5902719368917156 
-0.1230132604124872 -0.08094684379546699 -0.2229804724522981 0.3570447812112515 -0.2702456179580063 
0.4632772006145491 -0.04652517323064976 -0.2670670944170663 -0.8527898900837445 -0.109816873167799 
-0.9534645121013102 -0.06572079083483504 0.9296623182074278 -0.7095837747600149 0.5633283262706419 
-0.07005774964653494 -0.2538985438612907 -0.08521728872974935 0.1521279498143175 0.139626612604343 
-0.3462933509018493 -0.04593313396768146 0.5808710310603674 -0.07299198943066779 0.2807649009045311 
0.2192163779827253 -0.393383487039209 -0.06861106771889594 -0.3123216532173906 -0.2407906208742441 
-0.1301220057363023 0.06706417606258884 0.2302385651785597 0.3363319493989838 -0.4887109444998508 
-0.2542561951287392 -0.501066603685679 0.2299584608334895 0.5402649490137261 0.1363659576168737 
-0.009014907096099693 0.2465591827728381 -0.2527167421862488 0.1427683010581326 -0.4111633362519253 
0.06505021794770968 -0.4585588308387044 -0.5179647331949109 0.2470982402441942 -0.1021781290630599 
0.1530361517426909 0.06812280507653354 -0.1995163896512223 -0.7120650703697384 0.3187344393024185 
-0.1299493051440436 0.04665305910732932 0.6062634024570323 0.3611969043051322 -0.8628742246296854 
-0.5931954700231134 -0.08052015409568235 0.04692495008424823 0.869126863369418 0.2844742864048154 
0.5275587797990595 -0.130035192564186 -0.391607879933767 -0.1828061653816219 -0.4066180619104377 
0.270024471269057 0.02982603271942718 -0.4685724227861595 0.03518459832274531 -0.3791651684278802 
0.02070415493759233 -0.2443960238087953 -0.08500591163115656 0.1890019244572526 -0.5914787781891976 
0.07145950776986382 0.3259581524133683 -0.2249398756068878 -0.3351869595189425 -0.2015693735473559 
0.2053006736598336 -0.3763438592644309 -0.2237935453420876 0.1506668234769054 -0.05994203026297269 
0.4254191368765434 -0.3966849596401197 -0.1701830257505868 -0.7088440349990718 0.2845226796550802 
0.5852750844886898 -0.6227401091579898 -0.1297267128380619 -0.2687958604358002 -0.04945843555334569 
-0.06329845595990538 -1.054066248236838 -0.5362524131505275 1.212360660464003 0.2284709220792514 
-0.3981300934130426 0.7153814501821703 -0.04591358407861754 -0.5292864789200933 -0.4411997970128782 
-0.8902503220584719 0.8401132283777437 0.1321271001122497 -0.1672487515778904 -0.3563106315290875 
-0.7578620242200664 0.02304026215930143 0.412207679664409 -0.3314822392738872 0.6517578787513341 
1.269918472510339 -1.427629272737071 -0.6481146681804049 -0.2787842140800376 0.5144372040345391 
-0.6327872485085233 -0.06323099679438361 0.9633606684058829 0.4899426458151778 -0.6659622711993062 
-0.6720900434214667 -0.235889261803364 0.8336952651888343 0.309975052311644 -0.2146145403743826 
0.6624605544557333 -0.4897141539586477 -0.5960026854181846 0.3510049607342815 0.0798028051511607 
0.6474859601310006 0.7066500663326996 -0.3122186457997639 -1.233008524652739 -0.3967536144123193 
-0.6199832220486801 0.4424160910713373 0.8999526931965923 -0.3954874480250968 -0.1544122345408207 
0.221901345202042 0.5388799563740334 -0.6907057163354136 0.4993148295898334 -0.8028284497841631 
0.4007454142178938 0.3101344841500338 -0.444458932968201 0.3507338938558353 -0.9082804735717107 
-0.883828518762355 0.4513409801808851 0.08645180379990211 0.8874829500771571 -0.3023321588982337 
0.4998491129109036 -0.1942961158519713 -0.4332219589908775 -0.1543692956068147 0.07194521917681304 
-0.1179255678895269 0.5575703330284719 -0.6548007098055501 0.7020079561848204 -0.4151325650484753 
0.06624148318140516 -0.3750878547162296 0.4848341432147123 -0.746332903026901 0.3994891170075548 
-0.03780986566092212 0.7330234475982542 -0.1123566003194349 -0.2005316960650311 -0.7316860324448534 
-0.7090552352512431 -0.06489757353098105 0.05715575686390244 0.7482604429725157 0.191891455350379 
0.4640805271209903 -0.0621029305793921 -0.8929938411422326 0.6038816695655873 -0.3762396755037948 
0.264487175345907 -0.1605705929999028 -0.2750900573173865 0.4732302493407358 -0.7599111896127507 
-0.6104895622376759 -0.479024096291553 0.7098535765573778 -0.1136499274638453 0.7965754849964507 
-1.258769495924752 -0.1770781657823926 0.8376875451134298 0.5685799852449657 0.2042112147821857 
-0.01034923862295302 1.310199516643207 -0.4286475713740556 -0.6365661731382163 -0.3561857661739493 
0.111939118482271 0.4292749665049583 -0.5322679510743922 0.1551454007426883 -0.4785248054972829 
0.8041105097192288 -0.03156561852140318 -0.7509347749549191 -0.7075680585919116 9.425881898516425e-005 
0.2290341635161665 -0.1048371962201283 -0.6265030756335516 0.3850335067546759 -0.43387387081007 
0.9181723168320689 0.699160699888177 -1.460894759843894 -0.184836076002263 -0.617128609296004 
0.03425497504565363 -0.1426078991208488 -0.4234325946214349 -0.1283764534517331 0.8529006526476483 
-0.2976723599176895 0.184286610515992 -0.359185776189651 0.5583877652377906 -0.5505479504787465 
-0.1723857058594646 -0.1359467393829051 0.1079687391962285 -0.02033011321910008 -0.07396980993380586 
0.3816414811580718 -0.267196596325921 -0.4446775007364405 -0.4386257366999601 0.1410785120314188 
0.1597845930089781 0.2092152906483504 0.2526535709061571 0.3387708533160979 -0.9325450314195937 
-0.6308740297384572 0.2080265061222169 -0.05586103334341484 0.7894819911693263 -0.6742299888170753 
1.390680558346068 -0.6542182325302979 -1.040264752056276 -0.1659044229776379 -0.8332131358392224 
0.8525200984893753 -0.3699554300306381 -1.125817281231778 0.5585396052152438 -0.3577931542522686 
0.03846342090971912 -0.1969821056297176 -0.3251151824544445 -0.6263564783788971 0.4552135432188372 
0.119753820932971 -0.1275350353523774 0.04602168540972086 -0.6195435360125408 -0.01364069692019243 
0.3571169833528748 -0.7213438262039755 -0.779945911277486 0.4475007941325785 0.3728342281183836 
-0.3832395165396457 0.3087011296349884 0.6061991383293279 -0.650637266850948 -0.2232281984032174 
-0.5046467150914357 0.7182134766213331 0.6626301336167646 -0.4164705581674393 -0.6861512931842662 
-1.223956668121113 0.5795905330739131 0.917076856639008 -0.3423678741248696 0.1007024731174134 
-0.03180921156620233 -0.2951069180866063 0.1029852185872397 0.3470999427935526 -0.415785412012979 
-0.6114079955588437 0.1388260592117798 0.8065562217631971 0.06000223995745647 -0.006964120084090669 
-0.2012700139168149 0.05552086429945104 0.2235536266210068 0.3234071042421541 -0.3973863612908386 
-0.2463677543257966 0.4457786776311121 -0.1214335137855432 -0.432127897945659 0.247778591643176 
-0.1995013850855282 -0.3981717706938849 0.3150628490223073 0.2772600209520262 0.1587596337030209 
1.072284702667115 -0.3933844333657399 -0.6453307171157546 -0.3784879881324506 -0.2692650478371414 
-0.34389052809701 0.5816558956853043 0.2769403412014953 -0.1421692603897053 -0.2290295506325432 
0.2621068450838416 -0.4888518774389806 -0.3304854707474719 0.275314698122942 -0.1135018132997732 
-0.4969964060162057 -0.04728974610886398 0.3919811120119762 0.3022186931712456 0.3783868752519849 
-0.7191537679152475 0.8397358337206851 -0.8358800020641432 0.274739098978373 0.6921139856475904 
-0.0814448320266304 1.064312862625789 -0.2744676412304422 0.1913912745135994 -0.7534423789899988 
-0.3538472569804008 -0.3661452438894097 0.9036707362287056 -0.7658330773570935 0.2855901186513912 
-0.5067427664381453 0.5073129599021212 0.4627632715690161 -0.472649002368199 0.02663204031819344 
0.142551605884883 0.03094470504891923 0.413038038037438 -0.4466105704961124 -0.2667551240003285 
1.028622081701928 -0.468007524260819 -0.6508404103828964 0.5799172854112653 -0.739181495064542 
-0.3684133763777942 0.3845217447118174 0.003734087808212605 0.04845447752361413 -0.08070319961026758 
-0.4400292651970819 -0.09078147503561951 0.4797216550122212 -0.05127086980323382 -0.02232645928765362 
-0.4513306968263055 0.2073351212600234 0.03307335571122753 0.05316429173062113 0.4401952370372157 
0.5006125602924987 1.025774143584735 -1.113556838817433 -0.8478953200254759 0.06286728510615383 
-0.4779235000962306 0.0304434969681447 -0.2445264886915327 0.2435232269080297 0.5370813095707402 
-0.5084137986260918 -0.002956688917160788 0.8086205634295627 -0.4684094012295219 0.3690005281948786 
0.4331113123607246 -0.4686811255230233 -0.5697907416519146 -0.04182115100919333 -0.115851700224077 
-0.1465135298512569 0.08371510166150858 0.2821956987375267 -0.3191906613736061 -0.302756954457939 
-0.02518245819515262 -0.1352314231109086 0.4716275112959311 -0.4702111597796041 0.5778320564111007 
-0.02934003528220745 0.6663507245730097 -0.06436499750328363 -0.3325853504898487 -0.548296227444853 
-0.360081950503779 0.1260418199344822 0.1995681034933092 -0.1942490329972706 0.5718851696841958 
0.04148513739953292 -0.009508990091108064 0.06133352102337494 -0.5649283796434876 0.2043171707469546 
-0.2154951602098462 0.4510142843296853 0.1706191452998399 -0.1070562770864194 -0.05341494387642529 
0.2220223558087837 -0.06314099434979255 0.1785304319031374 -0.178190117973202 -0.4843086985441626 
1.030396610232248 -0.3791575644091635 -0.6903014009987354 -0.3365763995966697 -0.5357544428908025 
0.04196101343789362 -0.1030287720265446 0.5778583843783521 -0.2093227604409195 -0.3891407320007218 
-0.01960063220639387 -0.5516742123617756 -0.1471805647065969 -0.2754049583007678 -0.006454034688668869 
-0.6264041708803557 -0.1473000284432437 1.320494700789967 -0.783586936838727 -0.3428144164081945 
-0.7463219216840957 0.6182293412972726 -0.1902395417388946 0.5675308683626366 0.1780316621683381 
0.2295915684919506 0.09917259378146273 -0.06156224094326224 0.1748927851407033 -0.4962839032764361 
0.1328734146334956 -0.1224574611484399 -0.4954067091090132 0.0679215246798313 0.2256487813940716 
0.2745858384012894 -0.08436304870458269 0.05004556052803133 -0.2621595253989338 -0.2034962614456413 
-0.2795761824681854 0.7274325235081987 -0.3886031120378298 -0.1132266845805528 -0.4433150552560047 
0.1028311807803252 -0.2032471425530479 -0.3051815406969784 0.06858853836087557 0.1424546397061788 
-0.07095172843368365 0.8254775337529704 -0.2670613962205001 -0.1049565578609412 -0.4728295849281304 
-0.347274875604584 -0.4790477570011112 0.7030984670596361 -0.62994872859847 -0.1023172586168269 
-0.6709157721460017 1.318907830877221 -0.08584376172765212 -0.7966499588451984 0.2537924723340395 
-0.1791148409449401 0.131890416349174 -0.1133881755850872 0.2680994796339772 -0.07033628969839934 
-0.5603451804036179 -0.4382009949502121 0.5424593578414606 0.237913952281568 0.5345594281581481 
-0.4214337896232123 0.04299094746914162 0.6431648688352344 0.1272333386668741 -0.4913792080330687 
0.4220158331285607 0.2237808039174974 -0.2820644723565822 0.03168438825423572 -0.5698205115876684 
0.3728616091210665 -0.7079660555401677 0.1121801021390166 -0.4735824453150179 -0.2636459759424362 
-0.5248157914713975 -0.327357418281258 0.5028410097646122 -0.6729952023083806 1.014935168911499 
0.1692357461481252 0.09070646649761177 -1.06166700558251 0.8485689754529531 -0.2657957767076093 
0.5992308166368947 -0.3429914491775764 0.385143588234238 -1.040210121138612 -0.06211748450008098 
-0.2678616137973711 -0.3216709176081199 -0.4559878632701087 0.2530936360446318 0.8299118742595431 
-0.2219262695787967 -0.3751236291098258 0.5173871058550947 -0.2708999888542212 0.3880785182519027 
-1.342358040089623 0.2975731991914713 1.072052791150929 0.3607796602048505 0.5012741606834721 
0.3460478321150477 0.4794640617170908 -0.5685513106855709 -0.199911380159484 -0.04695744313011015 
0.5694417385552746 0.2447202679571262 0.2058787848418574 -0.1970399467949239 -0.446019128331424 
-0.7177320519550089 -0.5637150700527516 1.139287815097038 1.012997392671817 -1.183897182112849 
0.3151016053412419 0.236426357864607 0.1484755397604986 -0.9018315927435906 -0.2695306841259971 
-0.8302958867283448 0.3897407729358409 1.178136953297177 0.5152176212655608 -0.5784088514399439 
-0.8085947661951138 0.9802338445910064 0.5693103285694079 -0.2907098123050609 -0.2241726843339779 
-0.2947867634360097 -0.5221867197234316 0.8993441141447595 -0.1517298214433385 -0.2159241183695187 
-0.05345095885154638 0.06766811561679278 0.2732528591325014 -0.2174085376277408 -0.5145498246514471 
0.5464071367589392 0.3189624662898784 0.04457087766597848 -0.5163128115491081 -1.025298948205261 
0.4097520448023345 -0.2294734744756838 0.371323795323078 -0.3255077781866429 -0.6830492577956517 
-0.2825327179939007 0.2102277888861081 -0.1965290155334778 0.1732799060649889 0.4469545759396754 
-0.3273223235661285 0.6073798268229593 -0.009197666881829048 -0.5555453356029519 0.2312851768411321 
0.2834214088448225 0.4097122160406518 -0.3830178238290453 -0.5874474851668032 -0.504481278846989 
-0.3907354848083948 0.3011002892441831 0.7595224661622084 -0.4096127475960325 -0.7237613161767837 
-0.4248938226731974 0.2800566053783202 0.9023102271762906 -0.9302957279689861 -0.06269642669157642 
0.2510307668380002 -0.3515364677585876 0.07101266504615289 -0.775196291750177 0.3343151337590088 
0.4655714488059771 -0.4807775452919808 -0.2169360264721072 -0.5351102531773506 -0.08427424955421647 
0.006765872219473036 0.4084216210890656 0.08352450408795099 -0.5720106584898064 0.2211712979493828 
-0.2290989934243682 -0.09958625673499742 -0.3372079037387928 -0.4130847771192532 1.169253933599586 
0.673186721149287 -0.2128009686683105 -0.3257924580745152 -0.08926033724615413 -0.1511186083949855 
0.4079329935392024 0.4493202705989138 -0.0986540265792944 -0.2871552432681201 -0.7585860536032871 
-0.1158553378659752 0.1425073120146668 0.2715789429045851 0.03248954407494574 -0.660319447113766 
0.4121027117404801 0.1405123190844888 -0.2193378072210877 -0.1230209750087231 -0.691361749755054 
0.3217112121677418 0.1805917867399854 -0.1979583863282069 -0.06134227309152149 -0.5660697309216569 
0.3044486599469958 -0.043571006036575 -0.1538500654269629 -0.8118674941749815 0.0471130580939176 
0.2202173092219449 0.2123357346798779 -0.2536011992094081 0.1917798991313256 -0.5958139918190282 
-0.1936917026972218 -0.3054157243379597 0.7151373369176381 0.06556430654089532 -0.596142479898754 
0.1250495614814544 -0.5422245030611079 0.06912686358807736 0.6155069483430928 -0.2232628535081646 
-0.6078013417221021 0.5409173188909771 0.4606216332310543 -0.1098056968121432 0.1142851275118489 
0.1024389163918138 0.1857713273439315 0.4343173997618577 -0.6392639374351548 -0.2032084053706794 
-0.0009931792600436362 0.09156047774498929 0.4302773773448645 -0.3334460387527101 -0.5902765711504381 
-0.2160445815021817 -0.4474448178482262 1.037937725514923 -0.05091408340508225 -0.2920815070584983 
0.2780978932280431 -0.3716807479430754 -0.2261906063702436 0.3061651719043163 -0.1988413675625624 
0.1522598091809563 -0.2064965881003905 -0.4046950863012704 -0.1538871445160279 0.6307163467125861 
0.4370853792295357 -0.2722688613286257 -0.5327764967402751 -0.08311059314825096 0.05138691591065789 
-1.095414600311273 0.8176420201174371 0.4407900312239249 -0.5018262298837493 0.8754928300166581 
0.1384227642197589 -0.6432513941056973 -0.02884436852583688 0.6457116446237865 -0.1384586703462229 
0.7132715006557278 0.1541860515747951 -0.4495694687257984 -0.2873936567869897 -0.5663846291968657 
0.0021897023781162 0.1500257156087325 -1.172378686176394 0.6593498453427085 0.07868888106304622 
0.2295672268825977 -1.133395472005941 0.09110953101295659 -0.167419257591778 0.09453662336415353 
0.193558540854665 -0.09326098099528976 0.01822364648320076 0.03113627073751901 -0.4240599734281122 
0.2102345357651109 0.03253678759782939 -0.7597529787379458 0.4115729403320211 -0.06342550880662957 
0.7280281684036541 -0.3011352098492562 0.3464600471988309 -1.063539378931691 -0.2412979302704197 
0.1983176062677466 -0.3347007379541131 0.2423411990327198 -0.1380737589076168 -0.4635286740723672 
-0.2423640700076226 0.4523742259130429 -0.1795378869915573 0.2069876368708087 -0.368282506827383 
0.3666013354229055 0.5222195237635104 0.8371184349425492 -0.6109829399904797 -1.360934299800235 
0.1327221125052959 0.1945979253257953 -0.049269475845045 -0.08325216058783011 -0.5075813573258386 
-0.9020717080671429 0.3935624164777802 0.07272210695000113 0.8265809261835594 -0.2456920399724484 
-0.2728273435382469 -0.0762237925311611 0.0226899609439158 -0.4672038837091216 0.8561239018225125 
0.1742402330028047 0.1571598573099579 -0.1619116459032389 -0.2146964012459711 -0.6005629756714692 
-0.08233322404237899 0.08046636710205524 -0.3008810867654047 0.08056880748588896 -0.2131922536539882 
0.06281715076377589 0.009117484513244473 0.0863664460338148 -0.5966525992956693 0.01165595709829942 
0.1056357804995731 -0.1172097064087521 -0.4948071307654143 -0.8166695160646034 0.5250809475352856 
-0.2269314174770333 0.336401243711187 0.4287537197424289 0.3763979350597207 -0.5335670175997382 
0.9620310098629045 -0.6313304493964584 -0.2539314298000536 -0.1633207049476393 -1.607138230095325 
-0.09699029575045645 0.5157647445470387 -0.1821808087973264 0.6436591539992163 -1.272091801311085 
0.4387132068950478 -0.5449000161472369 0.6560459638290399 -0.7903156822805395 -0.3583546698177277 
-0.04470522685136111 -0.2143863709945657 0.07858670281486646 0.5359853139765155 -0.05975988789821563 
1.104313968299135 -0.822137552747037 -0.1869888948918055 -0.5435773088584526 -0.7343890971309612 
-1.182655054403803 -0.3783956665465602 0.6083059002746183 -0.502674647929145 1.515264766007917 
0.3962161357110445 -0.7556309117574689 -0.4916546746346808 0.1135404513360863 0.3206516220781485 
-0.3998922753090338 -0.1232241659127886 0.08262270366697443 0.8952328412055022 -0.3969011531935531 
-0.1761723743320335 -0.4479556033059796 -0.5494358295706567 0.1710793732311627 0.6224300341677401 
0.1458820765684847 0.3969954500011801 -1.147475687052516 0.02533346830772917 1.046742458005857 
-0.3000576630982119 -0.1863221855634281 0.9454253174327616 0.2019295796450611 -0.3567629377671713 
0.8100134771948748 0.1604655962425017 -0.176458205983425 -1.145674430930422 -0.8822601162116469 
-0.03250364399440561 0.4738022801609484 0.1855332521970398 0.1253621830487293 -0.8893722717634914 
-0.05115531005440138 0.1550157833322047 -1.927295546791808 0.9425181265981238 0.3269928468571302 
0.2047949643378002 -0.1358639223820923 -0.1306727490869028 -0.04684154050674524 0.06626941749402594 
0.75150794975545 -0.4825970606725056 -0.0522200854676258 -0.1302116147934994 -1.026786169979548 
-0.2147518430794239 0.7270353817967071 0.3414581088699864 -1.238290393911161 -0.2948211819380255 
-0.8894432797469345 0.9556448428782327 -0.5236823894450506 0.6848885834299489 0.3638456068783087 
-0.8881212295112226 -0.3087710463209062 0.09417739405686772 0.4669160245268008 1.416273382920982 
0.7624952824724313 -1.189917375938598 1.104793759908252 -1.953861114130654 -1.369978528642911 
-0.6415368631440523 0.2617939951753788 0.3600567972013797 -0.0692694828236665 0.9151624405430535 
-0.1981908699921607 0.5108289586756265 0.4592994088578508 0.08956497305681153 -1.234286161011149 
-0.2222817335859426 -0.09066239472744439 0.157389623381562 0.3647692333621683 0.1642241058605412 
0.02439871892865007 0.7562938755502807 0.00981622755672394 -0.7803443610106177 0.194552640336015 
-1.586502727497202 0.6087285907555708 -0.1171113794985483 0.6975924877116152 1.108375140178166 
0.1536236342438361 -0.5135010450254165 -0.3461651490935676 -0.2389337149483463 0.9898608557927208 
1.09516254804778 -1.013396006405795 -0.2578623763307363 -0.3499576504094761 -0.4402434960691956 
0.260236838652863 -0.1092566983054551 -1.412727833593506 0.2041727467662257 0.5542743389370438 
0.0643417895911331 -0.796048326012951 -0.8333441548702079 -0.2767431310596539 -0.8923214936713849 
-0.2164709547240251 -0.4572063131569368 -0.6633128109999925 -0.5759505158344334 -0.4439911888849699 
0.1096271682755404 -0.8362230901530203 -0.7469411943776688 -0.5616365253248177 -0.5154803818158594 
-0.2336647125732678 -0.6633824630958304 -0.40398005608951 -0.5752210057282419 -0.3359733477267287 
-0.04801315375995386 -0.9929480879574771 -0.9902477268577244 -0.3839966265906178 0.1563286233283336 
0.2391758694758036 -0.4331471782695477 -0.8493703773005903 -0.455112539900096 -1.672148339973741 
0.1282829685799517 -0.545495692197806 -0.9036585644122498 -0.7389374833346168 -0.8378308685580649 
-0.07642419971664208 -0.5540665916507095 -0.6041287263013169 -0.4556910253080657 -0.9078274195879352 
-0.09436076572060548 -0.9899154454743766 -0.735810869534253 -0.2197016635762813 -0.1061347762262617 
