solver_type L2R_LR
nr_class 4
label 1 3 0 2
nr_feature 225
bias -1
w
-0.09861646388709146 -0.4255117498376085 -0.1945510658953698 0.1522199721582767 
-0.4337665823932246 0.9669642014107295 0.2215665156280134 -0.8731819668217715 
-0.1926792619204664 0.1596777906450583 0.4558846370798546 -0.7525202899532341 
-0.2379647950199273 -0.3406205096104019 0.1415338011023431 -0.1595651373964215 
0.1702002162001808 -1.009033280890103 0.08140929511772461 0.3663614348187752 
-0.5069750713754813 -0.3714917311755017 0.6084610361227923 0.1054508510533993 
-0.09475847398896507 0.6631378410991945 -0.3995092725976974 -0.129161373355806 
-0.1543663575658079 -0.1935919060685386 0.3481830056637481 -0.2726253574332949 
0.7649538456027107 0.04819207771261963 -0.3609454409098802 -0.7253333545645717 
-0.008004190679791204 0.1206047456143913 -0.3422064435496545 0.1828703373422807 
-0.01880132340332192 -0.6855457058939197 0.7386356660182506 0.06541287396776381 
0.3489247909136725 -0.2641788798204387 -0.02104854767892653 -0.2807588315713064 
-0.3926001003094251 0.3676770011570125 -0.2956077950027664 0.7668537177796495 
-0.6083512174669551 -0.1099634316058173 0.4781433095011188 -0.2535242644051097 
-0.1604230291782663 0.1144620596246295 0.02281593037488719 -0.1708933430022735 
-0.3741752196627164 -0.2294042530893241 0.8875740917152351 -0.02840979318429342 
0.2875471386556831 0.1444083551447681 -0.3343600163500475 -0.1698977304344041 
0.2594186041721532 -0.3185328348788794 -0.07941850765970647 0.3263233211355848 
0.7538425111102246 -0.3815133955853008 0.02436283080120851 -0.4011175163073759 
-0.01662662721091471 0.417324946596189 -0.2913487173167349 -0.2138813702834251 
-0.3434725606647295 -0.4737231077110646 -0.2922025845829019 0.837428677798131 
-0.5120578412344412 0.3536241700898976 -0.3523925869161884 0.4083500731157893 
0.02882064595297297 -0.5407778961034995 0.6013975796240603 0.06076842110687528 
0.3455590611343237 -0.3804096181540734 -0.3984831163587444 0.4994357282154664 
-0.1440856019926327 0.2377026507592841 0.05340610282739824 -0.3104480869040413 
0.04869605956283563 0.3448187237462438 -0.3550574961433438 -0.1544843215625218 
0.08710213967792024 -0.1176149738415322 0.4503413534908438 -0.3807928331314235 
0.03285782281960836 0.3792707187501292 -0.9099082683100456 0.1251914674694306 
0.2380620338666928 0.2689972742003499 -0.5368052243756379 -0.131383113129987 
-0.1265912898355967 -0.03021763113099043 -0.123316658260081 -0.2583756814458419 
0.1389920404815078 0.160154660781286 -0.2571064413932198 -0.1591435963052487 
-0.2219949968834628 -0.09499311346519675 -0.0103044273222253 0.0006345024058650138 
0.5981245949359736 -0.6642267770452682 0.1944625287232228 0.1293323866021702 
-0.583788847554186 0.5316752278153989 0.3744685457088534 -0.506862422430447 
-0.2390700845476899 0.2829069412467115 -0.4035592636955417 0.3084218154872401 
-0.5601600006784755 0.2421583129918861 0.01180923206393655 -0.004778752360206792 
-0.0347821040242445 -0.6436641884257035 -0.08488708719237634 0.4399245587091819 
-0.0619999516790959 -0.1126755333503388 0.3220888475293386 -0.4753491884697774 
0.5162302817319262 -0.6254253079101909 0.1062876151633723 0.03040178050862314 
0.7297472917318061 -0.6859620402457114 -0.3014311597840903 0.1712432893778862 
0.290213389334142 -0.8327711252369829 0.536902954089849 0.2928836062483085 
-0.3574790046429029 0.2127376101576558 -0.4200353080373598 0.3541405947072493 
-0.8230013153559811 -0.3351681193898235 1.124039842963891 -0.9547191762146692 
0.2444998230115008 0.5191760638560491 -0.4847705424560961 -0.3821030192582939 
0.2631627082888213 -0.4013072476867536 0.1453187400071532 -0.1350120473119927 
-0.6529262319365642 0.3300680867855913 0.1045419230810936 0.0848600120875817 
-0.5709205906454189 0.005717994302793034 -0.6363898278739568 0.8950865623066715 
0.4246308930301112 0.01614284629890682 -0.3031246836740016 -0.6761996533389408 
-0.3537035879265155 0.6571513011486104 -0.4125178502950223 0.5755544503769811 
-0.1656718763038561 -0.1723225716422807 0.560235382432778 0.2230307188957047 
-0.1532290491105648 -0.0987095309466966 0.3537680609053845 -0.212693209910403 
0.8746908965768436 -0.2729315587945318 -0.532575862106778 0.1816008319142741 
0.763765530806392 -0.6258335071358369 -0.4357213395653884 -0.2229565914013175 
-0.8576253947520368 -0.1055578576555625 0.2894786078696646 0.07492704499925201 
0.5566650647284659 -0.6057695048769562 -0.1824624666716459 0.257260443269295 
0.1580966474143091 0.1277157107500732 0.1600453819779288 -0.5335769907294032 
-0.04845292372436342 -0.4837767836723937 -0.06700497126368726 0.4524533653050858 
0.04772635021667984 -0.1228371738789153 0.1919883327953828 -0.3087464231938432 
0.1455064587225593 0.1108274114919839 -0.4101581797671182 0.2007950418067803 
0.4457221617593012 -0.9747124486108935 -0.149669245069463 0.5582458029110254 
0.2208723156055265 -1.059218751406379 0.8633062082325117 0.1000083276531396 
0.7943329837005075 0.01134572986003773 -0.9387463245963532 0.2332084717284133 
0.02985123708975111 -0.8424425784729319 1.188853175416887 -0.2457132840395902 
-0.6026229752967163 0.8338923049150054 -0.7415300678517915 0.350505702920705 
-0.02077999575534201 0.25048508563585 0.280188595599112 -0.3747374132097741 
0.5598708233250223 0.4752147089503409 -0.9494835806834914 0.3570352974793946 
0.2891673485900719 -0.367167830280779 -0.6752569734604004 0.903119576685264 
0.1075182138371059 -1.040216769706764 0.8992539702902134 0.3615928533414088 
0.2671439111739524 -0.4725033300079368 0.4120986695570441 -0.4224833502646331 
0.2331208318962792 -0.7752967074774413 0.7236781072262755 0.2416033216537601 
0.8671137051212017 -0.3594068977236495 -0.7537041807999557 0.3403858014270139 
-0.07080190906186253 0.6036903415879144 -0.4638331971986252 0.06620678469894745 
0.3359724884017459 0.1706409215931707 -0.8164886336980327 0.1857611098067593 
1.714568082746856 -0.2622541963926736 -2.030395903724652 0.5292288331802258 
0.47194651366282 -1.760811970392843 0.3077723309263223 1.10790081594348 
-0.5030060410043885 -0.6194634438966096 0.4141839538439566 0.5237292326581334 
0.7038320123499002 -0.5393131324128229 -0.346479849477175 0.2844084485507927 
0.4526672079749204 -0.2525030907222146 -0.02346171638490264 -0.08735384640158467 
-0.5034575032767482 0.5001996146468773 -0.3430371711902968 0.172710163768086 
0.4838816145812007 -0.2151988773956522 -0.2436687980782524 -0.2701519867401714 
0.4100596157971795 0.7373640841321122 -0.4286458997311951 -1.065058419791139 
0.06371155046730051 -0.1033228878827888 -0.3350192542794578 0.3433356175221697 
0.1754546343787009 -0.1095677952969351 -0.3357556947658674 0.4738740229675852 
-0.6596538862280379 0.5150188322746439 -0.2770665569961327 0.3162691077116298 
0.7470553438140163 -0.225543457246646 -0.7818043983378274 -0.0510064428946911 
-0.3190389069747697 0.7683626684955227 -0.6270893393181815 0.5700212108933581 
0.4228515503091873 0.2187979547189329 -0.4356321356440867 0.0852992342264933 
0.1646165834040488 -0.4399818018862538 0.3495371508745715 -0.2514153782111479 
0.2719572172797776 -0.8802542946014492 0.9668375570529738 -0.4244982693340751 
0.5606486922226119 -0.2990835483969893 -0.1434964401496479 0.433712292272406 
-0.7104315961344301 -0.4816378855548262 -0.2329127209782456 0.6410264584736566 
0.1353947380567976 0.006810102476933984 -0.2605762646683441 -0.2109531698775675 
0.1653804673688162 -0.9229766433847593 0.522894003275274 0.124957339232784 
-0.07733050685380423 -0.01259750525345806 0.2514119722436345 -0.3958143100030258 
0.08280130228458389 0.3771500239365578 -0.5131041575269982 0.2119400943656475 
-0.1054755341758148 -0.3418074394679551 -0.0133876433034232 0.3789959034882208 
0.7026256314676391 0.3136110926594075 -0.07235285861279836 -0.9288941641146832 
0.550874523050889 -0.2772592989428285 -0.07750222281071191 -0.03982260123371195 
-0.7435856179809357 -0.1339021028023281 0.1933193754955024 0.4305388076809355 
-1.030976816780795 -0.7829619665058499 1.206405563595503 0.4923292726628786 
-0.2308147401685317 0.3210093914535316 0.05651283788462604 -0.2519159080831466 
0.02617576932080358 -0.6421549283709209 0.1679684088149837 0.3577279492434296 
-0.1860776744368639 0.3589761009613821 -0.3209503425399896 0.5792369142706638 
-0.3778843813195746 0.5583024432711896 -0.7322144823977522 0.3185061274321633 
0.1785218549967532 -0.1837617156697316 -0.1490444539352762 0.3587044459670768 
0.1784725928540737 0.1125981334413655 -0.2937418367533741 -0.2985370697059194 
0.1349089897488684 -0.3500842756153205 -0.02519764851066095 0.6524242567603183 
-0.6298801227439311 0.3192469986808229 0.6471846771535705 -0.5996978810793204 
-0.8269163414067035 0.08659772754708928 0.1004342225879458 0.6312039463677401 
-0.185249412865303 -0.1054380085126567 -0.1922109007069971 0.4886985516299937 
0.4091401321918743 0.5103109189014556 -0.5913364152874451 0.02284134516308766 
0.2848511965849417 -0.04220022989298859 -0.3792972254975451 0.6215298869406476 
-0.6440270872826671 0.2918268055524919 0.3055337716102712 0.1592265945361025 
0.92624654992747 -0.5818358612246665 -0.4283985672249371 -0.01181175611744688 
0.4936662525923103 -0.04015471764216392 -0.8635522631970364 0.2891459340012098 
-0.3729174853764685 0.4865908693685671 -0.1930835028016475 0.1273845774266191 
-1.333184781395974 0.1839709636494794 0.8444524798996153 -1.05716476482827 
0.3446954058288517 0.4480104121655011 -0.3855614522623459 -0.3764457170891907 
-0.4924319935209305 0.3212720231805935 -0.3265915281205677 0.8723303995054961 
0.3236737181703507 0.3359951512468034 -0.4672800138571637 -0.490265846246115 
-0.7635070737790204 0.146056061990497 -0.1296059042441505 0.5061702440247995 
0.1216955812649581 -0.9929869459141915 1.049613925024936 0.1530323951826826 
-1.666719818691539 1.818689959037336 -0.8137596545664134 -0.2557771252780573 
0.2267625784867338 0.8823509902479856 -1.34035718475851 -0.4899227970593412 
-0.3027929054050849 0.2700061487199525 -0.2439428370316798 0.07155896944188764 
0.0655446118291043 1.103689780814162 -0.6453540475263018 -0.8542541145564818 
0.005704811945402701 -1.577373284245907 1.204030069983287 -0.436601907980242 
-1.143558352920738 0.09732673733432906 -0.09133595832879343 0.572618206430926 
1.084034617926092 -1.367194580027417 -0.5866626139963593 1.244117238701345 
-0.5529079168006633 -0.06532998553121544 0.5319779699831981 -0.6848585358128145 
-0.5835103438754644 0.5765091682240081 -0.1186452610876965 -0.2363090756226638 
-0.1832462655973046 -0.4940616102058223 -0.3045705290175871 0.7464317589146983 
-0.572270030665704 -0.5626877614049155 1.014387217922996 -0.01997589092647537 
-0.1367214697209417 0.196694445788086 0.5115066452892557 -0.7694477177354747 
-0.01902020591150332 0.6652272120672707 -0.4400702763385123 -0.1624859826773095 
-0.4154040109015244 0.6547888833910407 0.08970418300313024 -0.3599615359819937 
-0.7858477485038607 1.748624886905926 -0.6830047234939349 -0.5300040214303773 
0.05506396746553952 -0.3924073996155229 0.237141042194352 0.270076405445093 
-0.05545375634038609 0.8181592328942974 -0.9601249271398875 0.14339081333108 
-0.2853960823924013 -0.04995152642392056 -0.254830251737724 0.6164326486096008 
-0.8917518826242081 0.5548383958701479 -0.03420218694786911 0.3487453410519661 
0.05334043661456573 0.331620847326553 -0.02640951853726584 -0.8513610252035744 
-0.2243312606976678 2.00590614079457 -1.4640396564622 -0.6511165884101604 
-0.4948288601565355 0.9087005250636469 -0.307794998848907 -0.9519422620375009 
-0.9573431558133596 0.1921945808185723 0.2097879785057203 0.1392699498129491 
0.1081912055181488 0.5513636485539982 -0.4783093109528284 -0.5700200449875394 
0.5634746831537241 0.2557278039638859 -0.9085938698075845 0.30291921511802 
0.1335388743982257 -0.9569831958219403 0.6367404405797755 0.1111935729145264 
0.5760083322091829 0.5349401102088061 -0.4829030844690204 -0.754924811627757 
-0.8197431717620273 0.817106073553127 -0.04289151921981305 -0.2227358030496566 
-0.1354145435095409 -0.05900133597818684 0.3247412137293982 -0.2190069355681999 
0.08318534337170823 0.4895988053139467 -0.01223211885288877 -0.7369444868459212 
0.4106083265304163 -0.2432039495043625 0.3185139763061267 -0.5097888033139464 
0.0352405949469582 0.9343315061400174 -0.9034034540299566 -0.5746747490180328 
0.6523114571405677 0.08636001805924483 0.1063124008972558 -1.024232961927354 
0.1875894520019722 -0.05423331428890307 0.1511338280470341 -0.1217635174886393 
-0.009305375517399399 0.2281419254650544 0.002930420899455966 -0.3541697112735355 
0.1301293576949196 0.080206071001726 -0.04973390292253492 -0.2963758030179033 
-0.5979963416400768 -0.7455282240665938 0.966787567756122 0.1342450516594047 
0.4858666155956056 0.6609220301014191 -0.7551203789301181 -0.769585639694455 
-0.6804517200621864 0.5948405541649202 -0.2664451732551484 0.3957428949032933 
0.06082014240730741 0.4316890852753365 -0.06761565835467247 -0.4540197854434037 
-0.5949049451390389 0.8787017711279708 -0.6040324785162324 0.01438610339002349 
-0.4882478550092915 0.5412285865519961 0.06309361789119627 -0.4867007665655802 
-1.20620718491618 0.7564831943482687 -0.4283460606910998 0.315398949293057 
0.5642126016424536 0.02733590459152699 -0.9161705084541169 0.1830617268322377 
-0.7873708052410331 -0.1710295640214227 0.3626065064381847 -0.1753961708441015 
-0.3383962889361162 0.4893555048571117 -0.5801364344735851 0.2115578656863585 
-0.6399434497408365 0.06898294586599744 0.1630297513360758 0.0576773352365103 
-0.394143910777036 0.2769016969475776 0.3093039433751355 -0.3434409548124237 
-0.103921740175919 -0.8258468949263466 0.7139750488639635 -0.2763255768530979 
0.2463326269655995 0.00332079492125857 -0.006294316001681672 -0.3186495483135955 
0.522185106913942 -0.572356663024903 0.3962006603415896 -0.4981594145296361 
0.4037346881203727 0.5498240635562817 -1.24056501969137 -0.05987381403190314 
0.7325956084829506 -0.3946585762222312 -0.2259376668027869 0.07215594518701453 
0.168137926057133 0.02306328459326119 -0.08811370197882726 -0.2046726888775693 
0.1655441477160076 0.1517448800216357 -0.4974587648323542 0.2122626834665797 
-0.2568728148369412 -0.367721724742826 0.6525560037411933 -0.06566727335141083 
-0.108797599875379 0.4660309421860875 -0.2118594166068103 -0.3600574717441414 
-0.08844336551641599 0.4354630978164603 -0.2092743091061195 -0.5730090372488264 
-0.3579612125951713 0.4247412405409716 -0.007116935945756762 -0.5699742701202378 
-0.05696677325182095 0.06246302011136215 0.1076785216922022 -0.3821033857609077 
0.2857102271902711 0.5468919721299678 -0.4116627091798452 -0.6540849597216311 
-0.1909888100551245 0.1641050466812809 -0.7365821661448824 0.8678945091089922 
-0.1581140116778518 -0.6023924495518624 0.5629614191466391 0.1674235749497019 
-0.1963971809902715 0.3239350608764143 0.04850005815976539 -0.3920765064535611 
0.03413591234332063 0.3327185536962836 -0.4077970898746983 -0.0269260224231783 
-0.519326181623419 0.1679680379022364 0.6006370881255025 -0.1893595269999423 
0.3775423871587038 0.5984188926844203 -0.6614336681204202 0.6340566208636163 
-0.6353408220912836 0.2101201724112976 1.156710422491436 -1.683570810732385 
1.047380287364078 -0.6340315199480471 0.3460734571307799 -0.8812418723841474 
-0.6071598197763419 -0.1087431333026417 0.3103354965669531 0.7733140890574867 
0.8717959677135682 -0.4725739147884479 -0.1639959964580807 0.373253189867793 
1.325692681106594 -0.7604742438039578 0.375679711215894 -1.368967169319093 
2.129630305841071 -1.461552518859633 -1.211859753888336 0.5506203175929264 
2.166411616704094 -1.05692508378732 -0.5902107180292637 -0.3918920632030454 
-0.1324849655549963 0.6725900287073583 0.1913028638788324 -0.9120841449082656 
0.5006877129576117 1.857139150054006 -1.333737269140268 -1.665044052509926 
-0.04174758593550677 0.6152970646603174 0.0375416585303014 -0.05341593636807232 
0.7762301641212921 -0.2548617723740373 0.2304558813754948 -0.7190114324107062 
-0.3595630738169545 0.7169463081807922 -0.948649803768938 1.211967865190132 
0.2932713606238824 0.7899307399421515 0.04430464915180633 -0.9133854063501122 
-0.2092218145589594 -0.1719151398129448 0.9381643080141304 -1.635928258887585 
0.07744476287685025 0.3623356481678115 -1.021377018023684 0.2456740259966803 
-1.301648527166222 1.126810704379012 -0.2176144957846541 0.02191107925118753 
-0.9289302565425364 -1.948930706177548 0.2268437795297391 2.069433363765509 
-1.944966385359751 0.5102744871328953 0.5034953972113717 0.5691423645380906 
0.3731344789872202 -0.6315246044721568 0.8811178002804861 -1.712906496541155 
-0.03037517251955455 -0.6914753764489613 1.272292024389831 -1.118717849451045 
0.7140358990970295 1.21635491322232 -2.238149607248359 0.4304234028933561 
-2.058291854833751 -0.2712371650934438 1.138598336256169 0.322098839805395 
-1.854962885453106 1.003803358171344 -0.1130658981902476 0.5435011813857044 
0.1638155203286975 -0.3204831349438749 0.1432640230199414 0.3704643634146987 
-2.204739966184687 -1.507643079109955 1.680591821604847 0.5678701111361684 
0.2809457237030602 0.1701334066352808 -2.069372057602334 1.408773065245224 
-0.2302700935580425 -1.197008804275632 0.1434940675334967 1.59086214324438 
-0.5818083390495579 -0.9336832105651844 0.1371046411624512 -0.6342792042752176 
-0.8720714455507463 -0.2683109439058236 -0.1810668491330693 -0.4372386041785983 
-0.5071307517910287 -0.2692631304764478 -0.3046012919768414 -0.4906411883634655 
-0.4765766630466838 -0.2923971868904676 -0.2790410177541194 -0.7635199831073125 
-0.6554514098319283 -0.3248829451568933 -0.009074096490105666 -0.8731944794215953 
-0.8289824635127009 -0.8539771529001103 -0.06044838570320184 0.07455546571170084 
-0.879178601700109 -0.4690167556943167 0.02042098955114559 -0.5010147499597361 
-0.5361582590902821 -0.7872084357853608 -0.2729414248174422 0.04912145529692256 
-0.5456736756009213 -0.2150320934677283 -0.09604306468121891 -1.110265702154452 
